<?xml version="1.0"?>
<opencv_storage>
<cascade>
  <stageType>BOOST</stageType>
  <featureType>HAAR</featureType>
  <height>24</height>
  <width>24</width>
  <stageParams>
    <boostType>GAB</boostType>
    <minHitRate>9.9500000476837158e-01</minHitRate>
    <maxFalseAlarm>5.0000000000000000e-01</maxFalseAlarm>
    <weightTrimRate>9.4999999999999996e-01</weightTrimRate>
    <maxDepth>1</maxDepth>
    <maxWeakCount>100</maxWeakCount></stageParams>
  <featureParams>
    <maxCatCount>0</maxCatCount>
    <featSize>1</featSize>
    <mode>BASIC</mode></featureParams>
  <stageNum>5</stageNum>
  <stages>
    <!-- stage 0 -->
    <_>
      <maxWeakCount>1</maxWeakCount>
      <stageThreshold>8.1818181276321411e-01</stageThreshold>
      <weakClassifiers>
        <_>
          <internalNodes>
            0 -1 3 -3.8097971118986607e-03</internalNodes>
          <leafValues>
            -1. 8.1818181276321411e-01</leafValues></_></weakClassifiers></_>
    <!-- stage 1 -->
    <_>
      <maxWeakCount>2</maxWeakCount>
      <stageThreshold>-7.3614156246185303e-01</stageThreshold>
      <weakClassifiers>
        <_>
          <internalNodes>
            0 -1 4 -8.5436329245567322e-02</internalNodes>
          <leafValues>
            1. -9.4174754619598389e-01</leafValues></_>
        <_>
          <internalNodes>
            0 -1 6 1.5298515791073442e-03</internalNodes>
          <leafValues>
            -1. 2.0560599863529205e-01</leafValues></_></weakClassifiers></_>
    <!-- stage 2 -->
    <_>
      <maxWeakCount>2</maxWeakCount>
      <stageThreshold>-4.0524798631668091e-01</stageThreshold>
      <weakClassifiers>
        <_>
          <internalNodes>
            0 -1 5 1.8964871764183044e-02</internalNodes>
          <leafValues>
            -9.3203884363174438e-01 8.5714286565780640e-01</leafValues></_>
        <_>
          <internalNodes>
            0 -1 0 -1.6777676064521074e-03</internalNodes>
          <leafValues>
            -9.5516186952590942e-01 5.2679085731506348e-01</leafValues></_></weakClassifiers></_>
    <!-- stage 3 -->
    <_>
      <maxWeakCount>2</maxWeakCount>
      <stageThreshold>-1.4427550137042999e-01</stageThreshold>
      <weakClassifiers>
        <_>
          <internalNodes>
            0 -1 2 -1.5128910308703780e-03</internalNodes>
          <leafValues>
            -9.8000001907348633e-01 8.0000001192092896e-01</leafValues></_>
        <_>
          <internalNodes>
            0 -1 1 3.4290447831153870e-02</internalNodes>
          <leafValues>
            -9.4427549839019775e-01 9.3498575687408447e-01</leafValues></_></weakClassifiers></_>
    <!-- stage 4 -->
    <_>
      <maxWeakCount>2</maxWeakCount>
      <stageThreshold>1.9801979884505272e-02</stageThreshold>
      <weakClassifiers>
        <_>
          <internalNodes>
            0 -1 7 -1.8354620784521103e-02</internalNodes>
          <leafValues>
            1. -9.8019802570343018e-01</leafValues></_>
        <_>
          <internalNodes>
            0 -1 8 -1.0192430578172207e-02</internalNodes>
          <leafValues>
            1. -9.6153843402862549e-01</leafValues></_></weakClassifiers></_></stages>
  <features>
    <_>
      <rects>
        <_>
          0 4 5 10 -1.</_>
        <_>
          0 9 5 5 2.</_></rects>
      <tilted>0</tilted></_>
    <_>
      <rects>
        <_>
          0 11 16 6 -1.</_>
        <_>
          0 11 8 3 2.</_>
        <_>
          8 14 8 3 2.</_></rects>
      <tilted>0</tilted></_>
    <_>
      <rects>
        <_>
          1 0 3 12 -1.</_>
        <_>
          1 4 3 4 3.</_></rects>
      <tilted>0</tilted></_>
    <_>
      <rects>
        <_>
          1 20 23 2 -1.</_>
        <_>
          1 21 23 1 2.</_></rects>
      <tilted>0</tilted></_>
    <_>
      <rects>
        <_>
          4 8 12 9 -1.</_>
        <_>
          4 11 12 3 3.</_></rects>
      <tilted>0</tilted></_>
    <_>
      <rects>
        <_>
          7 10 10 4 -1.</_>
        <_>
          7 10 5 2 2.</_>
        <_>
          12 12 5 2 2.</_></rects>
      <tilted>0</tilted></_>
    <_>
      <rects>
        <_>
          8 21 2 2 -1.</_>
        <_>
          8 22 2 1 2.</_></rects>
      <tilted>0</tilted></_>
    <_>
      <rects>
        <_>
          10 6 6 6 -1.</_>
        <_>
          10 9 6 3 2.</_></rects>
      <tilted>0</tilted></_>
    <_>
      <rects>
        <_>
          16 11 8 12 -1.</_>
        <_>
          16 17 8 6 2.</_></rects>
      <tilted>0</tilted></_></features></cascade>
</opencv_storage>
